Language model created by QuickLM on Thu May 22 01:49:05 EDT 2014
Copyright (c) 1996-2010 Carnegie Mellon University and Alexander I. Rudnicky

The model is in standard ARPA format, designed by Doug Paul while he was at MITRE.

The code that was used to produce this language model is available in Open Source.
Please visit http://www.speech.cs.cmu.edu/tools/ for more information

The (fixed) discount mass is 0.5. The backoffs are computed using the ratio method.
This model based on a corpus of 5 sentences and 6 words

\data\
ngram 1=6
ngram 2=9
ngram 3=8

\1-grams:
-0.8573 </s> -0.3010
-0.8573 <s> -0.1919
-1.2553 AUTO -0.2361
-1.0792 COMPUTER -0.2361
-1.5563 HELLO -0.2632
-1.2553 HEY -0.2361

\2-grams:
-1.0000 <s> AUTO 0.0000
-1.0000 <s> COMPUTER 0.0000
-1.0000 <s> HELLO 0.0000
-0.6990 <s> HEY 0.0000
-0.3010 AUTO </s> -0.3010
-0.3010 COMPUTER </s> -0.3010
-0.3010 HELLO COMPUTER 0.0000
-0.6021 HEY AUTO 0.0000
-0.6021 HEY COMPUTER 0.0000

\3-grams:
-0.3010 <s> AUTO </s>
-0.3010 <s> COMPUTER </s>
-0.3010 <s> HELLO COMPUTER
-0.6021 <s> HEY AUTO
-0.6021 <s> HEY COMPUTER
-0.3010 HELLO COMPUTER </s>
-0.3010 HEY AUTO </s>
-0.3010 HEY COMPUTER </s>

\end\
